w_in
[[ 0.1746775   0.00585632  0.21166971 ... -0.0134112  -0.00406043
  -0.08893674]
 [ 0.13819123  0.41499869  0.1943824  ... -0.12854695 -0.04460331
  -0.03038638]
 [ 0.09151224 -0.39362566 -0.35196625 ...  0.15159802 -0.01487147
  -0.11973464]
 ...
 [ 0.13600487  0.12638139 -0.02057231 ... -0.05202816  0.09245751
  -0.04967257]
 [ 0.06156867  0.51401508  0.37383153 ...  0.05709478 -0.04542485
   0.06355237]
 [ 0.09490969  0.0633293   0.04716523 ... -0.07246368 -0.0973319
  -0.03070856]]
w_h
[[-4.13844224e+00 -2.75429990e+00  3.21835252e+00  1.63895287e+00
   2.67123055e+00  3.81199124e+00 -2.80600005e+00  3.05644133e+00
   3.96183625e+00 -1.79480949e+00  9.17402908e-01 -2.96299512e+00
   1.98318737e+00  4.56969620e+00  4.04779684e+00  3.32123539e+00
   4.00986373e+00 -3.25129884e+00 -1.20044814e+00  2.63546757e+00]
 [-3.54308830e-01 -7.17619185e-01 -5.63684200e-01  1.57682877e+00
   3.62335095e-01  2.25387368e-01 -1.16644842e-01 -3.37917999e-01
   2.56937624e-02  1.26255545e+00  5.16716128e-01 -1.39824903e+00
  -1.57402801e-01 -1.27586030e-01 -1.55835615e-01 -3.89602236e-01
  -4.17094485e-01  1.15602435e-01  3.08984948e-01  9.36828456e-01]
 [ 1.72092484e+00  3.92703136e+00 -4.50504771e+00 -3.03170189e+00
  -2.97514535e+00 -4.53357362e+00  4.58472047e+00 -4.92874849e+00
  -1.48136146e+00 -2.92403844e+00 -2.89157730e+00 -8.77505504e-01
   2.45882148e-01 -4.42219700e+00  4.04365771e+00 -4.19122638e+00
  -3.50283256e+00  3.27168015e+00 -4.16935586e+00 -2.43082623e+00]
 [ 9.99103296e+00  9.71129606e+00 -6.26825130e+00 -1.01305075e+01
  -9.39919634e+00 -8.97548161e+00  6.48518859e+00 -7.49246173e+00
  -5.99270360e+00 -7.75317663e+00 -8.62740224e+00  9.36449421e+00
  -1.82662615e+00 -7.01073042e+00 -1.65841650e+00 -8.20338249e+00
  -8.15029384e+00  9.17808228e+00 -2.30843857e-01 -9.86945501e+00]
 [ 1.07721328e+00 -7.26832418e-01 -7.99377091e-01 -8.31674470e-01
   2.59725097e-01  1.68094236e-01 -3.71892262e-01 -1.68003762e-01
   8.34532182e-03  8.75193849e-02  9.25389602e-01  9.75758781e-01
  -7.04632048e-01 -1.05373880e+00  4.51416676e-01 -7.86625253e-03
  -1.60592519e-01 -2.65800442e-01 -4.56824279e-02 -2.51059220e-01]
 [ 2.08148993e+00 -1.80960360e+00  2.90914301e-01  5.97985940e-02
  -2.65552512e-01  1.30132889e+00 -2.99872312e-01  1.54167306e-01
  -1.21198749e-01  1.85573523e-02  1.19701855e-01 -2.04071120e-01
   4.24913475e-02  6.30815478e-01  6.07896844e-01  2.60159143e-01
   8.10351315e-02 -3.07267076e-01  5.78983209e-01  1.05746547e+00]
 [-6.83040955e+00 -7.34531285e+00  7.06627449e+00  7.36601648e+00
   7.15540322e+00  7.58834247e+00 -7.09432376e+00  6.88831664e+00
   4.65242259e+00  7.58835209e+00  5.74878069e+00 -2.54315915e+00
  -1.88507338e-02  7.07875844e+00 -7.88334002e+00  6.49954162e+00
   5.92353497e+00 -6.59848413e+00  7.85669408e+00  7.39966028e+00]
 [ 1.78063255e+00  2.36245413e+00 -4.07687002e+00 -2.00546733e+00
  -2.55773802e+00 -3.14789818e+00  4.02867149e+00 -3.84355837e+00
  -1.34283018e+00 -2.69039070e+00 -1.79093440e+00 -3.36328767e-01
  -7.42918827e-02 -3.28575615e+00  3.87287738e+00 -3.03021840e+00
  -3.28074844e+00  2.70921992e+00 -3.26435623e+00 -2.01251098e+00]
 [-2.72314393e+00 -3.07421634e-01  1.07896814e+01 -2.08487185e+00
   1.06707448e+01  5.28438258e-01 -5.04835102e+00  9.81549316e+00
  -1.63897715e+00  7.48203055e+00  8.03836371e+00 -2.29049064e+00
   9.43335540e-01  5.66441102e-02 -9.59777992e+00  5.73362692e+00
   8.50015910e+00 -8.52325029e+00  4.52773253e+00  4.52130972e+00]
 [ 1.07821225e+01  9.65160031e+00 -7.30460862e+00 -1.08291793e+01
  -8.69057900e+00 -9.12615355e+00  6.61614863e+00 -6.82825836e+00
  -4.31998728e+00 -9.44657233e+00 -8.30558832e+00  9.66874851e+00
   4.78811448e+00 -7.22926856e+00  5.97096095e+00 -7.34137424e+00
  -7.72302223e+00  7.84657424e+00 -6.59408353e+00 -9.62842125e+00]
 [ 6.51261359e+00  6.82918987e+00 -5.50569757e+00 -6.85886641e+00
  -5.01795516e+00 -6.36832955e+00  5.50434178e+00 -5.94529094e+00
  -3.76997154e+00 -4.80955955e+00 -4.98130443e+00  5.36387647e+00
  -5.47360072e-01 -5.80828356e+00  2.29680454e+00 -5.90698578e+00
  -5.51559045e+00  6.09272639e+00 -3.20961136e+00 -6.20097545e+00]
 [-8.81687695e+00 -7.87913357e+00  3.20006268e+00  7.97149622e+00
   1.81107999e+00  9.03582088e+00 -4.75439902e+00  2.77431287e+00
   9.08579300e+00 -4.38027425e+00  1.32450612e+00 -6.97510860e+00
   4.00729793e+00  9.69335470e+00  1.16866324e+01  5.83687066e+00
   5.00057197e+00 -3.69810321e+00 -4.08162906e+00  6.18093945e+00]
 [ 5.09498328e+00  4.64142787e+00 -1.02723325e+01 -1.45960625e+00
  -1.01942755e+01 -5.43029252e+00  7.72065512e+00 -1.01555597e+01
  -2.61278494e+00 -3.84847662e+00 -6.92774803e+00  3.95284215e+00
  -1.68944681e+00 -5.44265494e+00  4.48143343e+00 -7.96235013e+00
  -9.15593749e+00  8.87315192e+00 -3.85376720e+00 -6.19061708e+00]
 [ 1.33844563e+00  1.48271372e+00 -3.28510355e+00 -1.64388705e+00
  -2.71240691e+00 -1.29723595e+00  3.31985989e+00 -3.44416704e+00
   2.35988639e-01 -2.35233702e+00 -2.52385871e+00 -5.63905228e-01
  -8.36213330e-01 -2.61328179e+00  1.78318078e+00 -3.20139210e+00
  -2.68819151e+00  1.56819217e+00 -1.52837386e+00 -1.11935383e+00]
 [-2.19869201e+00 -2.92338114e+00  1.28094949e+00  4.76200649e+00
   2.15500849e+00  2.63766117e+00 -1.96631688e+00  1.06776928e+00
   1.79997030e+00  3.33921199e+00  2.70426964e+00 -3.38313359e+00
  -2.21668156e+00  2.36639659e+00 -2.94053642e+00  8.37746827e-01
   7.13959338e-01 -1.65529496e+00  2.82772456e+00  2.90570148e+00]
 [ 5.42659286e-02  2.11657439e+00 -2.18679139e+00  2.79764188e-01
  -1.70108317e+00 -2.44678457e+00  3.16950991e+00 -2.50059711e+00
  -1.00035537e+00 -1.07121130e+00 -2.42551565e-01 -3.16865427e-01
  -8.96704470e-01 -1.87145395e+00  2.32280468e+00 -2.27597704e+00
  -2.35611314e+00  2.21067223e+00 -2.04326494e+00 -1.37080026e+00]
 [-6.86368852e-01  1.42593147e+00 -1.51433934e+00 -1.51115991e-01
   1.73461822e-01 -9.92158638e-01  1.61676274e+00 -9.47341320e-01
  -2.92901301e-01 -2.91424253e-01 -9.14453188e-01 -9.04933672e-01
  -4.49829840e-02 -5.27895375e-01  8.00344691e-01 -8.18317878e-01
  -7.49162280e-01  3.10608818e-01 -8.44143722e-01 -8.76507886e-01]
 [-1.17462804e+00  1.00137743e+00  3.39189105e-01 -4.29511267e-02
  -1.86708661e-01 -1.43267988e-01 -2.86835999e-01  2.07494799e-01
   1.41733743e-01  8.75558959e-02 -3.20888222e-01 -2.18187892e-01
   1.99472280e-01 -2.11484108e-01 -3.44940496e-01 -1.92197607e-01
   3.78881127e-01  6.61859541e-01  7.53929404e-01 -3.35124446e-01]
 [-1.16299886e-01 -8.91510312e-01  1.56167078e+00 -2.23474153e+00
  -2.76170107e-02  2.59061926e-01 -1.13898676e+00  1.47353940e+00
   1.26205002e+00 -1.55475298e-01 -1.23281088e+00  8.55611359e-01
   3.32930730e+00  5.15230626e-01 -1.10397225e+00  1.28270133e+00
   1.59193157e+00 -1.27075960e-01  4.90700945e-01  1.05851138e+00]
 [ 1.44125399e+00 -6.90120003e-01  2.74445988e-01 -6.13811943e-01
   1.35906961e+00 -1.71617812e-01 -2.77166938e-01  5.77530729e-01
  -1.24490554e-01  9.36376233e-01  4.54678064e-01  1.32695700e+00
   2.43720034e-01 -1.22037547e+00 -5.13378972e-01 -1.77745918e-01
  -1.40673881e-01 -1.16202202e+00  1.00632573e+00  5.75594264e-01]]
b_h
[ 26.12241989  -9.53901602  -0.2679711   -9.60982136   3.16950434
   2.06037121  -5.74288601   0.07967879   3.27462361  -4.53012323
   0.06787332   3.31753777  -8.2909618   -5.6279026  -10.88370573
   0.14981864  -1.86816289  -4.42359179   2.68270612   4.27933805]
w_out
[[ 1.95444712e+00  1.05484056e+00  5.35589559e-01 -2.55694423e+00
   8.33619978e-01  5.06356777e-01 -1.12741562e+00 -1.86604151e+00
   1.94801471e+00  2.52877449e+00  9.67552835e-01  5.27068641e-01
  -7.22412549e-01  2.88220728e+00 -3.34886089e-01 -1.50189875e+00
   1.29847562e+00  1.11320313e+00  9.25072661e-01  8.22828721e-01]
 [-4.59792952e-01  9.28297028e-01 -3.35243916e+00 -3.04973986e+00
   8.15903468e-01  4.40225602e+00  1.32082527e+00  9.81993173e-01
   6.07031787e-01  3.37005579e+00  3.05229659e-01 -4.26934008e-01
  -1.78146502e+00  8.66812421e-01  4.40864781e-01  3.41920261e+00
   1.04613653e+00  8.00683837e-01  1.53885381e+00  3.83242582e-01]
 [-5.30666411e-02 -1.74810580e-01  4.18994530e-01  1.07824145e+00
  -1.05826788e+00 -6.20681241e-01  8.95881478e-01 -1.60636844e-01
   1.05235526e-01 -1.89194870e+00  9.23624741e-01  5.83362599e-01
   5.97849536e-01 -5.48725229e-01 -7.18022608e-01  1.21446237e+00
   4.50158148e-02 -7.00793117e-01 -1.98635781e-01  9.58284878e-01]
 [ 1.56384192e+00 -8.47933984e-01 -1.00238895e+00  3.01146848e-01
  -1.87108255e+00  1.30950132e-01  4.14479264e-01  3.87996613e-01
  -1.44700105e+00 -1.26451477e+00  8.07037667e-01 -2.92481663e-02
  -8.65157021e-02 -8.57032473e-02 -7.39796683e-02 -8.44601917e-01
   1.37382083e+00  9.29659775e-01 -1.98904953e+00  1.36980752e+00]
 [ 2.35477178e-01  1.22843412e-01  8.70283152e-01  7.03212654e-01
  -1.12365589e+00  4.30749754e-01 -1.33011391e-01  1.04110223e+00
  -1.12815925e+00  1.83666199e+00 -1.37065911e-01 -1.67963523e+00
  -1.74764983e+00 -2.08587798e+00  6.79559432e-01 -1.52496267e+00
   6.87030484e-01  4.98887448e-01  1.79346698e+00 -8.01245095e-01]
 [ 2.30399333e+00  1.24763966e+00 -2.74773292e-02  1.82168134e+00
   3.60266224e+00 -3.72708688e+00  2.54178193e-01  8.17163463e-01
   2.74533219e+00  7.20339220e-01  1.19136275e-01  9.16181196e-01
   7.74433248e-01  1.09235304e+00  2.53357192e-01 -7.09184197e-01
  -1.15693603e+00  2.03126361e-01  2.38618599e+00  1.51914990e+00]
 [-1.17845402e+00  1.32674761e-01  1.36310308e-01 -9.32932655e-01
   2.81488233e+00 -6.97166786e-01 -1.21861920e+00  1.26056647e+00
  -1.94866041e-01  1.14908544e+00  1.10044209e+00  9.76555315e-01
   8.60853329e-01  1.23149107e+00  4.83742764e-01 -4.87344285e+00
  -1.50272795e+00 -4.77632419e+00 -6.06398556e-01 -2.74772987e+00]
 [-6.96317489e-01  2.03587676e-01 -1.41582905e+00  6.27545587e-01
  -1.85728981e+00 -2.62808006e+00  1.21726343e-01  8.75202585e-01
  -1.59135824e+00  2.89661199e-01  1.44623603e+00 -1.93873241e+00
   1.34927772e+00 -3.38762229e+00  1.00392662e+00  1.00011029e+00
  -1.39243253e+00 -3.31069904e+00  3.52184125e+00 -6.42726737e-02]
 [-1.04988839e+00 -2.18823196e-01  1.21227140e+00  5.48568642e-01
   4.72456620e-01  1.13875729e+00 -2.24927962e-01  1.55560355e+00
   3.17608622e+00  1.14262080e+00 -1.48984150e+00  1.57098186e+00
   1.35284666e+00  9.32543586e-01 -1.10012725e+00 -2.69786143e+00
   1.45706932e+00  4.13321606e-01  1.17116284e+00 -3.58116130e-01]
 [-1.85243211e+00  1.28361821e+00  2.69942313e-01  1.08053319e+00
  -7.32526119e-02  1.16817345e+00 -1.11010688e-01 -8.99712336e-01
  -1.16552151e-01 -9.77294309e-01  4.88787182e-01  7.67949340e-01
  -1.60170785e+00  1.71935026e+00  1.00623173e-01  1.91889931e-01
   1.53672008e+00 -7.48972522e-01  1.74960927e+00  6.84857557e-01]
 [ 8.90700848e-01  8.54687737e-01  1.59729292e+00  6.25344638e-01
  -1.24050734e+00  8.34948919e-01 -2.69441048e-01  1.11999846e+00
   9.38956427e-01 -9.23226788e-01 -2.40071437e-01 -3.74049485e-01
   2.21061339e-01 -2.37092889e+00  6.01921607e-01 -7.01043138e-01
   8.88679987e-01 -4.69939167e-02 -2.72928043e+00  2.53054351e+00]
 [-6.29929012e-01  1.77940543e-01 -1.77916524e+00  1.68208517e+00
   1.02624895e+00  3.06022372e+00 -1.50723566e+00  4.11000287e-02
  -1.66910788e-01 -1.01187218e+00  2.64533261e+00 -1.79065539e+00
  -3.02622780e+00 -8.15894946e-01  2.13539135e+00 -2.33292953e-01
   1.82229096e+00  1.34988877e+00  7.36803530e-01 -1.26923507e-01]
 [-1.22763903e+00 -1.16568488e+00 -1.13672684e+00  9.43131605e-02
   3.46675209e+00  1.88416281e+00  8.91810386e-01  3.52084705e-01
  -1.37611478e+00 -1.14605023e+00  8.67800019e-01 -2.97696269e-01
   2.39948396e+00 -1.25718707e+00  1.83778104e+00  1.38567265e+00
  -2.03188565e+00  2.51334933e+00  2.93909756e+00 -1.84750471e+00]
 [ 5.64436815e-01 -1.40383246e+00  1.07496756e+00 -1.97835630e+00
  -2.47614056e-03  8.98718132e-01 -1.89098338e-01  1.43892053e+00
  -2.03446851e-01 -6.40871070e-01 -1.25522714e+00  1.06769320e-01
   9.53501822e-01 -1.29756890e-01 -3.32102808e-01 -7.80278940e-01
   7.27993247e-01  1.42766846e+00 -7.20585133e-01 -6.76980238e-01]
 [ 1.21406484e+00  1.84336889e+00 -7.17577713e-01  5.21210407e-01
   5.93789046e-01  5.47133964e-01  4.32401702e-01 -4.90215083e-02
   8.89535681e-01  1.63766648e+00 -8.26261321e-01  1.34273532e+00
  -2.22548017e-01  3.22612935e-04 -4.76112654e-01  1.12864422e+00
   8.68500709e-01  6.49251059e-01  7.68401791e-01  2.36344376e-04]
 [-7.67718242e-01 -1.38105266e+00 -3.86400219e-01  9.22107706e-01
  -9.23006058e-01 -1.33153581e+00  3.26171966e-01  4.81364097e-01
   2.84908863e-01 -6.75036800e-01  8.37632506e-01 -4.44542596e-01
  -1.21715949e+00  1.27921604e+00 -4.47394124e-02 -2.61753950e-01
  -1.16726064e+00 -3.64906618e-01 -9.72540118e-01  2.38756914e-01]
 [-3.61452890e-02 -3.15394044e+00 -1.70918386e-01 -1.31689647e+00
  -2.21888178e+00 -2.07491819e+00 -8.19222264e-01 -7.88944451e-01
   7.23280764e-01 -4.52023583e-01 -7.05031861e-01  7.21853505e-02
   9.51376092e-01  1.30385741e+00  9.82608581e-01  1.89539771e+00
   1.12725059e+00 -1.89565445e+00 -1.47401559e+00 -6.66131690e-01]
 [-2.21827103e-01  1.66136793e+00 -6.55152074e-01 -8.95700735e-02
  -4.44881699e-01  1.17117459e+00 -1.39014403e+00  3.26454855e-01
  -2.26335092e-01  4.44134227e-01 -9.50767086e-01 -5.03630341e-01
   6.19558843e-01  1.38944559e+00  9.29732582e-01 -1.68440983e+00
   2.30339899e-01 -6.38747060e-01  1.37987709e+00  1.12140458e+00]
 [-5.51870001e-01  8.68882234e-01 -4.39849962e-01 -1.10660347e+00
   9.17212952e-01  1.52216109e+00 -1.01510651e+00  3.83158995e-01
   6.58665398e-01  1.03462569e+00  4.95725366e-01 -2.31052512e-01
  -1.56679115e+00  4.12725436e-01  6.46366192e-01 -4.74737892e-01
   1.39832890e+00  1.02746010e+00  1.10389745e+00  1.50545419e-01]
 [-2.20731716e-01  1.69923606e-02 -5.56147203e-02 -1.35136213e-01
  -1.25184901e-01 -2.82805034e-01  9.99116166e-02 -5.50542341e-02
  -2.14437198e-01 -5.10594561e-02  2.01894105e-01  2.66469101e-02
  -5.97308867e-02 -2.22367872e-01 -1.74948855e-01  3.87650602e-01
  -3.43693352e-01  2.54940668e-01 -2.87567512e-01 -1.06127360e-01]
 [ 1.43514308e+00  8.52849690e-02  7.25437340e-02  2.09160721e-01
  -7.07297347e-01 -7.76060081e-01 -6.67332123e-02 -4.88504627e-01
   1.46586483e+00 -5.11749738e-01 -2.36891793e-01  5.66143316e-01
  -5.01710133e-01  6.76053924e-01 -9.32956264e-01  9.20240009e-01
  -4.50396526e-01 -1.06489565e+00 -2.31695768e+00 -3.89489938e-01]
 [ 5.81669891e-01 -2.91781202e-01  9.38294546e-02  5.60579549e-01
  -8.88861361e-01  4.73027311e-01  2.64705784e-01 -1.29789118e+00
  -1.15672673e+00 -4.74881930e-01 -4.98802183e-01 -3.76065302e-01
  -3.68691155e-01  2.98086364e-01  1.06154868e-01  1.14652669e+00
  -2.81683294e-01 -4.81877557e-01 -4.24104135e-01 -2.10088853e-01]
 [ 3.15063687e-01  2.93673514e-01  5.95742950e-01 -2.84995201e-01
  -8.10649458e-02 -2.75738235e-01  1.32339875e-01 -4.24879019e-01
  -4.75529871e-01 -2.68820142e-01 -1.16372532e-01 -1.68346921e-01
  -9.40269139e-02 -2.82128029e-01 -1.51548912e-01  6.80516728e-01
  -9.13984373e-01  3.39816881e-01 -6.56038551e-01 -2.15783884e-01]
 [-7.30410004e-01 -4.32900829e-01  4.20866915e-01  5.10470892e-01
   9.06261660e-02 -1.77538018e-01  4.04342954e-01  5.95685482e-01
  -1.33079197e+00 -9.19660209e-01 -4.62322082e-01  4.90211311e-01
  -1.32351101e+00 -4.05889176e-01 -6.13613936e-01 -3.39582103e-01
   1.62114019e+00  8.93515476e-01  1.31856303e+00  4.13704985e-02]
 [-1.00290197e+00  3.60668936e-02 -2.23521029e+00  1.47062760e+00
  -7.63390642e-01  4.18656022e-01 -7.67229150e-01 -9.69450831e-01
  -1.57607340e+00  5.87666812e-01 -1.05970030e+00  9.58369816e-01
  -6.83086487e-01  5.12142212e-01 -1.42804647e+00 -1.18914315e-01
   6.37111809e-01 -4.62662027e-01  8.45886091e-01  1.25974610e-01]
 [-1.67380875e-01 -1.09732002e-01  3.68924243e-01 -7.43686037e-02
   7.27914546e-02 -1.64043127e-01  3.97640498e-01 -3.55245438e-01
  -6.23332773e-01  2.37394391e-01 -9.26761508e-01  8.39525333e-01
   9.02776075e-01 -4.44042648e-01 -8.85508288e-01 -2.44959703e-01
  -8.32819596e-01  1.95709807e-01 -1.02474159e+00  3.65260239e-01]
 [ 1.10091266e+00  1.25452741e+00  4.95333630e-01 -5.55193406e-01
   9.68836031e-01  3.04727178e-01  1.51103088e-01 -9.79157006e-01
   9.18031442e-01 -2.92531831e-01  1.16356978e+00  1.05554055e-01
   1.00476470e+00 -2.92369295e-01 -1.19518823e-01  2.72957839e-01
   4.77740029e-01  1.25960193e+00  1.02304327e+00  5.42905199e-02]
 [ 1.07621445e+00 -1.15353571e-01  5.06872966e-01  1.56296516e-01
   3.52259039e-01 -8.52775195e-01  2.94051392e-01 -4.00276054e-01
  -1.25314525e-01 -4.15077916e-01  5.71639905e-02  3.71912288e-01
   1.98879607e-01 -4.07756510e-01 -7.77398976e-03  5.31556247e-01
  -6.83177789e-01  7.08764017e-01 -4.47590300e-01 -3.08524392e-01]
 [ 4.01743956e-02 -8.27425344e-01  7.65731330e-01  5.82316270e-01
   1.45531044e+00  6.17831886e-02  1.22017130e+00  2.43541062e-01
  -4.33440589e-01  5.57885103e-01 -5.51366288e-01  5.77600864e-01
   1.48861334e+00 -1.59010884e+00 -1.02154973e-01 -9.12709332e-01
  -2.90239195e-01 -6.04967722e-01 -9.32106460e-01 -3.97978091e-01]
 [-1.29739077e-01 -7.17559699e-02  5.49698420e-01 -1.83420036e-02
  -9.12785380e-02 -4.69720221e-01  4.12692031e-01 -6.06608724e-03
  -2.32830148e-01 -4.35275370e-02 -9.21969514e-02 -7.62843253e-02
   3.85315179e-01 -1.97216312e-01  4.84844095e-03  1.60469763e-01
  -4.50879978e-01  2.77770906e-01 -4.95651282e-01  1.62932239e-01]
 [-1.68301073e-01  4.87162978e-01  4.13956600e-01 -5.24063585e-01
  -4.22346483e-01 -3.52315942e-01 -6.25583344e-01 -8.12877116e-01
  -4.35936445e-01 -5.20322282e-01 -9.02321842e-02  1.41931820e-01
   1.07116688e-01  4.76661673e-01 -2.37793447e-01  3.38230182e-01
  -5.02304957e-01 -2.15371627e-02  5.87709326e-02  3.44571078e-01]
 [-1.17573734e+00 -2.67616911e+00 -1.88865967e-01  8.88109817e-02
  -7.63558466e-01  1.05919309e+00 -8.30395609e-02 -1.81389656e-01
   1.69594302e+00  5.00261748e-01 -6.73533006e-01 -9.44419358e-01
  -3.94889216e-01  2.47644705e-01  4.47917343e-01  1.10236252e+00
   5.34142633e-01  1.68052356e-01 -1.92707472e+00 -8.05465186e-01]
 [-1.43515174e-02  1.00327356e-01  3.41276844e-01 -4.96027115e-01
  -5.52761892e-02 -7.93824758e-01  4.78736016e-01 -2.09435328e-01
  -7.75628907e-01 -6.70017288e-01  4.18615255e-01  4.00353038e-02
   2.13161478e-02 -1.08341291e-01 -5.46061849e-01  3.75607309e-01
  -9.92616795e-01 -8.75576295e-02 -5.36645941e-01 -2.72545583e-01]
 [-2.76479972e-01 -2.35642073e-01  4.76564145e-01  1.64852351e-01
  -1.37341266e-02 -2.37323835e-01  9.91432688e-02  6.30846809e-02
  -4.44352297e-01 -7.71626759e-01 -4.87629118e-01 -1.07764138e-01
  -7.18682309e-02 -1.59325140e-01 -5.28180628e-01  3.85998710e-01
  -7.57359124e-01  1.23530714e-01 -5.61440061e-01 -2.64828348e-01]
 [-2.79330678e-02  5.64751007e-01  6.27074224e-01  4.73827624e-02
   1.76480923e-01  3.17215082e-01  5.54566478e-01 -2.55955527e-01
  -2.59658911e-02  2.46055046e-01 -8.47764021e-01  3.99411815e-01
  -4.61360305e-02  9.26714156e-01  1.25375060e-02  9.83743668e-03
  -7.88958679e-01 -2.29350391e-01 -1.25127096e+00  9.45657436e-02]
 [-2.45538150e-01 -8.69913040e-02  1.32062243e-01 -7.81708608e-02
  -2.54671815e-01 -4.54966661e-01  2.82518804e-01 -1.50479471e-01
  -1.94585029e-01 -1.92325611e-01 -4.04520493e-03 -2.46541671e-01
   1.33248205e-01 -1.80718020e-01 -1.42099958e-01  2.33430863e-01
  -3.07684570e-01  1.97031431e-01 -4.20547089e-01 -1.89329265e-01]
 [-2.20343137e-01  3.52488890e-02  1.02684391e-01  1.04232748e-02
  -4.02985398e-01 -3.94176705e-01  7.02300723e-02 -2.45454719e-02
  -3.77032523e-01 -3.84718219e-01 -8.72606839e-03 -2.66468292e-01
   2.16010442e-01  1.78159091e-01 -1.51214895e-01 -1.80921739e-01
  -3.49670132e-01 -9.71726441e-02 -3.79687066e-01 -1.84159146e-01]
 [-2.57987407e-01 -1.14314983e-01  7.44233247e-01 -3.83861882e-01
  -9.85786446e-01 -8.83279942e-01 -7.83710994e-01 -3.64170617e-01
  -5.94959230e-01 -5.86025164e-01 -5.93625575e-01 -1.37973059e-01
   4.35573216e-01 -2.84992292e-01 -7.08189277e-01  3.08121183e-01
  -7.16658408e-01 -6.27648685e-01 -2.50211045e-01  6.88066914e-01]
 [ 2.13993597e-01  1.65723464e-02  7.14738408e-01 -3.35825406e-01
  -3.78557022e-01 -6.91597000e-01  2.10338133e-01 -5.25995190e-01
  -5.53427311e-01 -5.11009736e-01 -6.24904072e-02 -2.06399336e-01
   5.25164234e-02 -4.51432355e-01 -1.77940638e-01  5.67717605e-01
  -1.10392615e+00  5.02933337e-02 -9.80020580e-01 -1.84647209e-01]
 [ 9.45529425e-02  3.10327189e-02  1.67337366e-01  1.75581437e-01
  -1.92797364e-01 -6.61519496e-01  4.35728656e-02 -2.73068198e-01
   4.57659255e-03 -1.52833693e-01 -7.41443975e-02  6.71201830e-03
   1.52290317e-01 -1.59280464e-02 -1.63134778e-01  1.15227208e-01
  -2.98615792e-01  3.28886589e-01 -2.37467064e-01 -5.72750748e-02]
 [-3.07360120e-01  4.24245951e-03  7.15644314e-02  3.88261720e-02
  -3.67496970e-01 -5.56478088e-01  1.03797746e-01 -1.55082622e-01
  -1.34088114e-01 -3.21682882e-01 -8.59030609e-02 -2.95350891e-01
   1.89979052e-01 -1.12457644e-01 -1.64568756e-01  1.86737074e-01
  -3.75418714e-01  4.86363155e-02 -4.86121836e-01 -8.37598439e-02]
 [-2.40413311e-01 -7.94077327e-02  7.69995191e-02 -5.83626925e-02
  -3.25223457e-01 -5.14773934e-01  1.04108712e-01 -1.86064702e-01
  -9.70487267e-02 -2.47284023e-01 -5.77667984e-02 -2.15075588e-01
   2.68070106e-01 -1.89457266e-01 -4.94699170e-02  2.12962620e-01
  -4.12503607e-01  1.02924307e-01 -5.05378955e-01 -1.72551232e-01]]
b_out
[ 1.19663931  0.59678441 -0.23074958 -1.02565285  1.92364459 -0.44327517
  1.2417388  -0.3150022   2.08675893  1.52616214  0.08250449  1.75799255
 -0.52926938  0.16431503  1.56389774  0.29276536  0.50622182  0.10052644
  1.73435985 -1.14828308 -0.67825309 -1.34561904 -0.38247798  1.02935197
  1.49295372  0.21605046  0.46697043 -0.18647915 -1.00136602 -0.63300432
  0.19619218  0.51940737 -0.55274559 -0.65915247 -0.58278963 -1.83783839
 -0.75444672 -0.67602145 -0.88240623 -1.42449625 -1.85865594 -1.88357728]
